{
  "model_weights": {
    "type": "group",
    "attributes": {
      "backend": "tensorflow",
      "keras_version": "3.6.0",
      "layer_names": [
        "sequential",
        "sequential_1",
        "conv2d",
        "max_pooling2d",
        "conv2d_1",
        "max_pooling2d_1",
        "conv2d_2",
        "max_pooling2d_2",
        "conv2d_3",
        "max_pooling2d_3",
        "conv2d_4",
        "max_pooling2d_4",
        "conv2d_5",
        "max_pooling2d_5",
        "flatten",
        "dense",
        "dense_1"
      ]
    }
  },
  "model_weights/conv2d": {
    "type": "group",
    "attributes": {
      "weight_names": [
        "sequential_2/conv2d/kernel",
        "sequential_2/conv2d/bias"
      ]
    }
  },
  "model_weights/conv2d/sequential_2": {
    "type": "group",
    "attributes": {}
  },
  "model_weights/conv2d/sequential_2/conv2d": {
    "type": "group",
    "attributes": {}
  },
  "model_weights/conv2d/sequential_2/conv2d/bias": {
    "type": "dataset",
    "shape": [
      32
    ],
    "dtype": "float32",
    "attributes": {},
    "data": [
      0.030237196013331413,
      -0.14151476323604584,
      -0.026354096829891205,
      -0.05944120138883591,
      0.05042058601975441,
      -0.008579849265515804,
      0.01245720125734806,
      -0.18607690930366516,
      -0.07948989421129227,
      -0.04069061204791069,
      -0.10064207762479782,
      -0.048642225563526154,
      -0.03216402232646942,
      -0.008346776477992535,
      0.09097432345151901,
      -0.019500501453876495,
      0.05995328724384308,
      0.029304832220077515,
      -0.018508974462747574,
      -0.03097316063940525,
      -0.023889148607850075,
      -0.07292266935110092,
      -0.20620214939117432,
      0.0061420174315571785,
      -0.023189283907413483,
      -0.018657566979527473,
      -0.029423033818602562,
      -0.033237557858228683,
      -0.019350582733750343,
      -0.014887237921357155,
      -0.020360227674245834,
      -0.03072638250887394
    ]
  },
  "model_weights/conv2d/sequential_2/conv2d/kernel": {
    "type": "dataset",
    "shape": [
      3,
      3,
      3,
      32
    ],
    "dtype": "float32",
    "attributes": {},
    "data": [
      [
        [
          [
            -0.018467238172888756,
            -0.10148116201162338,
            -0.06529206782579422,
            0.04578575864434242,
            -0.022828200832009315,
            0.05593911558389664,
            0.08499806374311447,
            0.09715761244297028,
            -0.11594393849372864,
            -0.1487278789281845,
            0.1255844682455063,
            0.08489128947257996,
            -0.13282939791679382,
            0.08007810264825821,
            0.08163220435380936,
            -0.024460524320602417,
            0.08395711332559586,
            0.04338657855987549,
            -0.14676588773727417,
            -0.1285986453294754,
            -0.02181193232536316,
            0.02213997393846512,
            -0.1237957701086998,
            -0.03640688955783844,
            0.05677106976509094,
            -0.1134880855679512,
            0.043608229607343674,
            -0.042181216180324554,
            -0.06958532333374023,
            -0.06781813502311707,
            0.08071906119585037,
            0.05557722970843315
          ],
          [
            0.13612405955791473,
            0.10487930476665497,
            0.043613266199827194,
            -0.12522926926612854,
            -0.17167586088180542,
            0.10860750079154968,
            -0.10912393778562546,
            -0.0019020788604393601,
            -0.059589654207229614,
            0.09378661960363388,
            0.0400344617664814,
            0.07506632804870605,
            0.11076043546199799,
            0.05356413871049881,
            -0.05517195910215378,
            0.03378569707274437,
            0.015729108825325966,
            0.01469563227146864,
            -0.002824151422828436,
            -0.14717262983322144,
            0.03657810389995575,
            -0.023984620347619057,
            -0.0702703520655632,
            0.06466768682003021,
            -0.05982613563537598,
            -0.0974530354142189,
            -0.042859334498643875,
            -0.0038539376109838486,
            0.061345167458057404,
            -0.10569992661476135,
            0.09928669780492783,
            0.12107110023498535
          ],
          [
            0.0398101732134819,
            -0.09258674830198288,
            -0.04455411806702614,
            0.11538249999284744,
            -0.13693466782569885,
            -0.04017581045627594,
            0.09403733164072037,
            -0.018352989107370377,
            0.004680221900343895,
            0.0049434443935751915,
            -0.0910535603761673,
            -0.07540511339902878,
            0.07573485374450684,
            -0.02273639664053917,
            0.10658841580152512,
            -0.088754802942276,
            -0.01086843479424715,
            -0.11377252638339996,
            -0.06444116681814194,
            -0.04233195632696152,
            -0.008728683926165104,
            0.029836460947990417,
            0.11395834386348724,
            0.013513571582734585,
            -0.04520712047815323,
            0.01119235809892416,
            -0.07144627720117569,
            -0.14390625059604645,
            -0.043530892580747604,
            -0.1251356303691864,
            0.08339736610651016,
            0.0017486339202150702
          ]
        ],
        [
          [
            -0.013229980133473873,
            0.06314583867788315,
            -0.04138598591089249,
            -0.12930206954479218,
            0.04167640209197998,
            0.0008517256355844438,
            0.024685034528374672,
            0.022060558199882507,
            0.08994665741920471,
            -0.09715287387371063,
            0.09176823496818542,
            0.056895188987255096,
            -0.017668873071670532,
            0.03523671254515648,
            -0.06560329347848892,
            0.019154679030179977,
            -0.11934380233287811,
            -0.016195910051465034,
            0.0958264097571373,
            0.07748780399560928,
            -0.005426191724836826,
            0.11031761020421982,
            0.13165061175823212,
            0.08781635761260986,
            -0.005076414439827204,
            0.12398247420787811,
            0.07013198733329773,
            0.02942357212305069,
            -0.03877591714262962,
            -0.004586918279528618,
            -0.00791457761079073,
            -0.001511425361968577
          ],
          [
            0.07536600530147552,
            0.14149260520935059,
            -0.0919085443019867,
            0.01581129990518093,
            -0.15887300670146942,
            -0.06445322185754776,
            -0.051839884370565414,
            0.10192444920539856,
            -0.09228196740150452,
            0.05308685079216957,
            0.13299043476581573,
            -0.11385664343833923,
            0.08280882984399796,
            -0.0915394201874733,
            -0.0625939890742302,
            -0.13500453531742096,
            -0.16275116801261902,
            0.0608755461871624,
            0.0068976967595517635,
            -0.02230549417436123,
            0.11671796441078186,
            -0.11397279053926468,
            0.08482778072357178,
            0.14359146356582642,
            0.03912701830267906,
            -0.00894030462950468,
            0.032276418060064316,
            -0.046268660575151443,
            0.03934381902217865,
            0.010072614066302776,
            -0.01155000552535057,
            0.03454666957259178
          ],
          [
            -0.14718514680862427,
            -0.09542878717184067,
            -0.04485510289669037,
            -0.035954371094703674,
            -0.18205133080482483,
            0.12955766916275024,
            -0.12388190627098083,
            -0.01557052694261074,
            -0.0827215164899826,
            0.06444840133190155,
            -0.021209854632616043,
            -0.08297066390514374,
            -0.05858859047293663,
            0.10308856517076492,
            0.05064849555492401,
            -0.09671305119991302,
            -0.19816172122955322,
            -0.09488291293382645,
            -0.14276640117168427,
            -0.13904033601284027,
            -0.10473498702049255,
            0.031982436776161194,
            0.054293256253004074,
            0.04516695812344551,
            0.025132672861218452,
            0.09015236049890518,
            -0.05966859683394432,
            0.047155339270830154,
            -0.03221278265118599,
            -0.030416544526815414,
            0.10836058855056763,
            0.06428047269582748
          ]
        ],
        [
          [
            -0.06474082916975021,
            0.11973223835229874,
            -0.11830679327249527,
            -0.10981850326061249,
            -0.10143027454614639,
            0.11337373405694962,
            0.14053525030612946,
            0.012668127194046974,
            -0.09228811413049698,
            -0.11172468215227127,
            0.08758421242237091,
            0.10956618189811707,
            -0.06023447960615158,
            -0.07895056158304214,
            0.10905584692955017,
            -0.08172321319580078,
            -0.12479879707098007,
            -0.1278901994228363,
            0.11168971657752991,
            -0.008927706629037857,
            -0.0678044930100441,
            -0.010101809166371822,
            0.020820830017328262,
            0.08912511169910431,
            -0.0019305043388158083,
            0.012491537258028984,
            0.03466924652457237,
            -0.1360785812139511,
            0.04674007371068001,
            0.13372883200645447,
            0.10581972450017929,
            0.12114403396844864
          ],
          [
            -0.1738603413105011,
            0.09627829492092133,
            0.06816663593053818,
            0.0553743913769722,
            -0.08911735564470291,
            -0.04588213935494423,
            0.10979177802801132,
            0.04040122032165527,
            -0.08987966924905777,
            -0.02121020294725895,
            0.0989537388086319,
            0.07646265625953674,
            -0.05372931808233261,
            -0.03623710945248604,
            -0.09858344495296478,
            0.11577077209949493,
            -0.143321692943573,
            -0.026335766538977623,
            0.07669109851121902,
            -0.13605423271656036,
            -0.11364854127168655,
            -0.15779687464237213,
            -0.06638114154338837,
            0.13691788911819458,
            0.04466366022825241,
            -0.029671868309378624,
            0.09511715173721313,
            0.019636882469058037,
            -0.10746829211711884,
            -0.09486151486635208,
            0.10837279260158539,
            0.16060544550418854
          ],
          [
            -0.16729560494422913,
            0.09692052006721497,
            0.13119648396968842,
            -0.004628339782357216,
            -0.024120282381772995,
            0.005907339509576559,
            0.007803712971508503,
            0.10271210968494415,
            0.13854943215847015,
            -0.07768773287534714,
            -0.07954360544681549,
            0.08675701916217804,
            -0.05909492075443268,
            -0.1255398392677307,
            -0.043129339814186096,
            -0.14795400202274323,
            0.010945189744234085,
            -0.12185526639223099,
            -0.13376639783382416,
            0.07201404869556427,
            -0.08481190353631973,
            -0.15906290709972382,
            -0.004858286119997501,
            0.08528898656368256,
            0.011953014880418777,
            -0.0761663168668747,
            0.05345779284834862,
            -0.08973444998264313,
            -0.09318450838327408,
            0.06071450561285019,
            -0.025155609473586082,
            -0.0751403346657753
          ]
        ]
      ],
      [
        [
          [
            -0.05506007745862007,
            -0.10968387126922607,
            -0.007286756299436092,
            0.08907903730869293,
            0.08502288162708282,
            0.02584209479391575,
            -0.1150224357843399,
            0.0045522660948336124,
            0.10487942397594452,
            -0.016307588666677475,
            -0.10685817897319794,
            0.0390663743019104,
            0.09388408809900284,
            0.14360368251800537,
            -0.018286922946572304,
            0.05672165006399155,
            -0.07899725437164307,
            -0.08846089243888855,
            0.1184997409582138,
            0.03951526805758476,
            -0.03154974430799484,
            0.12224730849266052,
            -0.05326871573925018,
            -0.09464768320322037,
            0.12095567584037781,
            -0.05389956012368202,
            -0.013720798306167126,
            -0.021467141807079315,
            0.11733318120241165,
            -0.12898260354995728,
            -0.0721535012125969,
            0.09358688443899155
          ],
          [
            0.08708734810352325,
            -0.1358923614025116,
            -0.07063744217157364,
            -0.003060570452362299,
            -0.1067364513874054,
            -0.08160219341516495,
            0.08852371573448181,
            0.006605604197829962,
            0.027153223752975464,
            -0.051873236894607544,
            0.11912800371646881,
            0.03090292029082775,
            -0.0962277501821518,
            0.08827700465917587,
            -0.07352542132139206,
            0.09455560147762299,
            0.03924433887004852,
            0.06485812366008759,
            0.08914250135421753,
            -0.016422029584646225,
            0.04139995947480202,
            -0.015700632706284523,
            -0.005556774791330099,
            0.03392987325787544,
            -0.03490078076720238,
            0.02079709805548191,
            -0.07643044739961624,
            0.03585123270750046,
            -0.15092715620994568,
            0.07162363827228546,
            -0.12349126487970352,
            -0.14629124104976654
          ],
          [
            0.10635453462600708,
            -0.12438534200191498,
            -0.11997609585523605,
            0.11243680119514465,
            -0.16647648811340332,
            0.11957556754350662,
            -0.008625918999314308,
            0.02851393260061741,
            -0.029099833220243454,
            -0.00200844113714993,
            0.08809325098991394,
            0.106146901845932,
            -0.12490718811750412,
            0.08676645904779434,
            0.0009638480842113495,
            0.062012314796447754,
            0.07547156512737274,
            -0.0414900928735733,
            -0.028750648722052574,
            -0.1139921322464943,
            -0.06650720536708832,
            -0.12670542299747467,
            -0.07879608124494553,
            0.05835776776075363,
            -0.046805258840322495,
            0.11274411529302597,
            -0.022514568641781807,
            -0.08279196918010712,
            0.05795549601316452,
            0.1265886425971985,
            0.02149871364235878,
            0.020846104249358177
          ]
        ],
        [
          [
            0.02338910661637783,
            -0.0518699511885643,
            0.1281639188528061,
            -0.13308826088905334,
            0.04481589049100876,
            0.08461558818817139,
            -0.09354143589735031,
            -0.08847205340862274,
            0.035017065703868866,
            -0.029679138213396072,
            0.040375035256147385,
            0.026945145800709724,
            -0.09433682262897491,
            0.09739271551370621,
            -0.16564790904521942,
            0.02993127331137657,
            -0.04281919077038765,
            0.05776601284742355,
            -0.05076020956039429,
            -0.14132168889045715,
            -0.09287608414888382,
            0.0903186947107315,
            -0.047278791666030884,
            0.11609508842229843,
            0.10717249661684036,
            -0.12339247018098831,
            -0.1338333934545517,
            -0.11733612418174744,
            0.07476259768009186,
            -0.11944554001092911,
            -0.03019089438021183,
            -0.0786881372332573
          ],
          [
            -0.0457860492169857,
            0.08430206775665283,
            -0.07681022584438324,
            -0.0674348697066307,
            -0.09125107526779175,
            -0.11944273114204407,
            -0.050092678517103195,
            0.11340905725955963,
            0.03490213304758072,
            -0.055941853672266006,
            -0.10012811422348022,
            -0.009588781744241714,
            0.006560632027685642,
            -0.07349611073732376,
            -0.0381045937538147,
            0.11957041919231415,
            -0.11966075003147125,
            0.14485672116279602,
            0.07852437347173691,
            -0.11753998696804047,
            -0.019939083606004715,
            0.10656428337097168,
            0.14933165907859802,
            -0.11936003714799881,
            0.06750772148370743,
            -0.0811162069439888,
            0.05855771154165268,
            0.03104633465409279,
            0.024533158168196678,
            -0.11291889101266861,
            -0.07239650934934616,
            -0.061439670622348785
          ],
          [
            -0.004534180276095867,
            0.05318140238523483,
            -0.11102864146232605,
            0.09410005062818527,
            0.10401619970798492,
            -0.022978728637099266,
            -0.06839420646429062,
            0.06518756598234177,
            -0.08209269493818283,
            0.09495057165622711,
            -0.06307609379291534,
            -0.12201133370399475,
            0.08728215098381042,
            -0.0845021978020668,
            -0.2143196165561676,
            -0.1140112355351448,
            -0.1063910722732544,
            0.12684327363967896,
            -0.07085632532835007,
            0.12868572771549225,
            0.09843017905950546,
            -0.10724318027496338,
            0.02453593909740448,
            -0.013980536721646786,
            0.14059872925281525,
            0.02330668456852436,
            0.10881588608026505,
            0.022026635706424713,
            -0.15460708737373352,
            -0.11808554083108902,
            0.006537366658449173,
            -0.09678139537572861
          ]
        ],
        [
          [
            -0.04065537080168724,
            -0.07061856985092163,
            0.07001884281635284,
            0.10878200083971024,
            -0.05565163865685463,
            0.002450224943459034,
            0.13636748492717743,
            0.00024784455308690667,
            -1.4376535546034575e-05,
            -0.05132977291941643,
            0.094323068857193,
            -0.0002595787518657744,
            -0.07099649310112,
            0.03641428053379059,
            0.04655402898788452,
            -0.10753987729549408,
            -0.010883528739213943,
            0.09315726906061172,
            0.03355345502495766,
            -0.04223138093948364,
            0.10815946757793427,
            0.03480624035000801,
            -0.08523355424404144,
            -0.02243325114250183,
            0.12491534650325775,
            0.09998717159032822,
            -0.01579373888671398,
            -0.08581197261810303,
            0.0004198025562800467,
            -0.0343930684030056,
            -0.002795096719637513,
            0.027286965399980545
          ],
          [
            0.0963682234287262,
            0.03767075389623642,
            0.0879807323217392,
            0.09322606772184372,
            0.10014134645462036,
            0.12368100881576538,
            -0.07343196868896484,
            0.12022227793931961,
            0.0979740098118782,
            -0.12163395434617996,
            -0.07960453629493713,
            -0.09120064973831177,
            -0.10702285915613174,
            0.051051750779151917,
            -0.06979682296514511,
            0.03375915437936783,
            -0.06907421350479126,
            -0.0827927365899086,
            -0.060989927500486374,
            0.11119784414768219,
            -0.13068339228630066,
            0.008217806927859783,
            -0.049826279282569885,
            0.03006790578365326,
            0.05349010229110718,
            -0.03608357161283493,
            0.09192640334367752,
            0.0329827219247818,
            0.09651552885770798,
            0.10335978865623474,
            0.08186075836420059,
            -0.10032281279563904
          ],
          [
            -0.15363657474517822,
            0.09497974067926407,
            0.06113474443554878,
            0.09961953014135361,
            0.09951671957969666,
            -0.12151965498924255,
            0.1421377807855606,
            -0.10348331183195114,
            0.09505610913038254,
            0.0945880338549614,
            -0.109418123960495,
            -0.08269396424293518,
            -0.10131708532571793,
            0.010620975866913795,
            0.012168117798864841,
            0.12053386867046356,
            -0.0848572850227356,
            0.023028846830129623,
            0.08179110288619995,
            -0.06447312980890274,
            0.006315447855740786,
            -0.09687653183937073,
            0.16353416442871094,
            -0.0014902036637067795,
            -0.06788820773363113,
            0.08951736241579056,
            -0.018634993582963943,
            0.043436914682388306,
            -0.007656540721654892,
            -0.044707830995321274,
            -0.08873207122087479,
            0.06533569097518921
          ]
        ]
      ],
      [
        [
          [
            0.11240244656801224,
            0.025739293545484543,
            -0.10802200436592102,
            0.06998546421527863,
            0.1480986624956131,
            -0.0518178828060627,
            -0.1217425987124443,
            0.014618068933486938,
            -0.05800842121243477,
            0.09020069986581802,
            -0.0033584029879420996,
            -0.15781919658184052,
            -0.07222577184438705,
            0.06738047301769257,
            -0.141586571931839,
            -0.05147607624530792,
            0.06285926699638367,
            0.03378943353891373,
            -0.06839244812726974,
            -0.07444822788238525,
            0.047771066427230835,
            0.11571050435304642,
            -0.13518133759498596,
            -0.07902979850769043,
            -0.12012840062379837,
            -0.10249129682779312,
            0.013544166460633278,
            -0.04686882719397545,
            -0.022264260798692703,
            0.015713457018136978,
            0.06503140926361084,
            0.04963978752493858
          ],
          [
            -0.014497790485620499,
            -0.0077845510095357895,
            -0.004952778574079275,
            0.12093044072389603,
            -0.024275992065668106,
            0.12485292553901672,
            0.022957583889365196,
            -0.010052284225821495,
            -0.12256909906864166,
            0.03496319055557251,
            0.06764300167560577,
            -0.01009761169552803,
            8.123798033921048e-05,
            -0.03130512684583664,
            -0.05018101632595062,
            -0.08082975447177887,
            -0.034962158650159836,
            -0.11192534863948822,
            0.04532855004072189,
            -0.04529403895139694,
            0.1287107765674591,
            -0.019383830949664116,
            -0.07108136266469955,
            -0.06920143961906433,
            0.07997916638851166,
            0.005954832304269075,
            0.10029348731040955,
            0.08031433820724487,
            0.07628393918275833,
            -0.0777750015258789,
            0.02202029339969158,
            -0.15607276558876038
          ],
          [
            -0.019654888659715652,
            -0.13010890781879425,
            0.01958766207098961,
            0.0988675206899643,
            0.0470009446144104,
            -0.03359483927488327,
            -0.12323381751775742,
            0.058485567569732666,
            -0.13650791347026825,
            -0.09175138175487518,
            0.08917589485645294,
            -0.08711173385381699,
            0.05612979456782341,
            -0.11512217670679092,
            -0.17072036862373352,
            0.11597263813018799,
            0.019171232357621193,
            -0.11245495080947876,
            0.10750621557235718,
            0.10498169809579849,
            -0.03911837562918663,
            0.04348041117191315,
            0.09159104526042938,
            -0.06263772398233414,
            -0.09893031418323517,
            0.0006866290932521224,
            0.05263637751340866,
            -0.09421195089817047,
            -0.027422940358519554,
            -0.03484321013092995,
            0.07146891951560974,
            0.04785170033574104
          ]
        ],
        [
          [
            -0.01699933037161827,
            -0.05360246077179909,
            0.11401206254959106,
            -0.1435708999633789,
            -0.10167345404624939,
            -0.06403253972530365,
            -0.042945586144924164,
            0.017485875636339188,
            0.09450072050094604,
            0.0336797833442688,
            -0.14440494775772095,
            0.07410716265439987,
            0.10814709961414337,
            -0.10061728209257126,
            -0.18605965375900269,
            -0.09548217803239822,
            0.001710033742710948,
            0.08932872861623764,
            0.022668110206723213,
            0.024754472076892853,
            -0.08456824719905853,
            0.046555448323488235,
            0.14388121664524078,
            -0.0511595755815506,
            0.1303296536207199,
            0.07298969477415085,
            0.003295122878625989,
            -0.1321702003479004,
            0.01801077090203762,
            0.030811341479420662,
            -0.0330704003572464,
            0.08220938593149185
          ],
          [
            0.11215551197528839,
            -0.1467636674642563,
            0.07884231209754944,
            0.05265893042087555,
            0.14111588895320892,
            -0.135708749294281,
            0.0022620651870965958,
            -0.05164910480380058,
            0.07642784714698792,
            -0.13625039160251617,
            0.01926511712372303,
            -0.06495174765586853,
            -0.06990960240364075,
            -0.09006238728761673,
            -0.13712045550346375,
            -0.12828730046749115,
            -0.005582759156823158,
            0.015058395452797413,
            -0.04430437833070755,
            0.07932480424642563,
            -0.0829857885837555,
            0.11404211074113846,
            0.09642490744590759,
            -0.11824220418930054,
            -0.039014969021081924,
            0.10283058136701584,
            0.0807020515203476,
            -0.11220792680978775,
            0.012249828316271305,
            0.017152996733784676,
            0.10637503862380981,
            -0.07652374356985092
          ],
          [
            -0.07399095594882965,
            -0.07521039247512817,
            0.11902129650115967,
            -0.04063176363706589,
            0.10114908218383789,
            0.03623567149043083,
            0.09602533280849457,
            -0.11408857256174088,
            0.1354030966758728,
            0.09812356531620026,
            -0.09121885895729065,
            -0.01830327697098255,
            0.06181397661566734,
            0.006325155030936003,
            -0.07385562360286713,
            0.061503827571868896,
            0.010791593231260777,
            -0.012851716950535774,
            -0.131269633769989,
            -0.012757809832692146,
            -0.11125068366527557,
            -0.03592072054743767,
            0.05096287280321121,
            -0.10525400936603546,
            0.09548667818307877,
            -0.10530870407819748,
            -0.017931731417775154,
            -0.007204235065728426,
            0.0014711417024955153,
            0.09194397181272507,
            0.02934747003018856,
            -0.14944767951965332
          ]
        ],
        [
          [
            -0.15284647047519684,
            0.09293380379676819,
            0.011957702226936817,
            -0.12328404933214188,
            -0.051214829087257385,
            0.014823060482740402,
            -0.14059188961982727,
            0.09994268417358398,
            0.03020099550485611,
            0.07685258239507675,
            -0.14411307871341705,
            -0.07410650700330734,
            0.06659474223852158,
            0.029503779485821724,
            -0.140899196267128,
            0.08167468756437302,
            0.10620539635419846,
            -0.11827637255191803,
            -0.03817841410636902,
            -0.10586313903331757,
            0.047001492232084274,
            -0.13582681119441986,
            0.005335057619959116,
            0.09435556828975677,
            0.07591405510902405,
            -0.052191074937582016,
            -0.022481324151158333,
            -0.11032366007566452,
            -0.08487437665462494,
            -0.07893603295087814,
            0.1340487003326416,
            -0.06322292238473892
          ],
          [
            -0.09923598170280457,
            -0.03679456189274788,
            -0.06757237762212753,
            0.061520129442214966,
            0.024414055049419403,
            0.0327058881521225,
            -0.024142112582921982,
            -0.004459563177078962,
            0.06398653984069824,
            0.004565817303955555,
            -0.10407956689596176,
            0.08227302879095078,
            -0.05153173208236694,
            -0.00834053847938776,
            0.11374906450510025,
            -0.07670819759368896,
            0.09956973046064377,
            0.08798356354236603,
            -0.09755366295576096,
            0.003558758180588484,
            0.14530256390571594,
            -0.0988977923989296,
            0.019066330045461655,
            -0.11240364611148834,
            0.1236812099814415,
            0.00892366748303175,
            -0.1434941589832306,
            -0.03045075200498104,
            0.007874326780438423,
            0.13011404871940613,
            0.1062927320599556,
            -0.06520751118659973
          ],
          [
            0.1042061299085617,
            0.04670381918549538,
            0.16085799038410187,
            -0.14708571135997772,
            -0.13916562497615814,
            0.02521621063351631,
            -0.06488481909036636,
            -0.10610514879226685,
            0.10381674766540527,
            -0.0935307964682579,
            -0.08665677160024643,
            0.021069906651973724,
            0.02828461304306984,
            0.00811730045825243,
            -0.09079312533140182,
            0.11685433238744736,
            -0.05455741658806801,
            -0.055322956293821335,
            0.1010541096329689,
            -0.024682732298970222,
            0.03814879432320595,
            0.04608996957540512,
            0.08054912835359573,
            -0.09359261393547058,
            -0.006748375482857227,
            -0.03609107807278633,
            0.07509934157133102,
            0.08551669865846634,
            -0.047904323786497116,
            0.08948031812906265,
            -0.0017435044283047318,
            -0.03706567734479904
          ]
        ]
      ]
    ]
  },
  "model_weights/conv2d_1": {
    "type": "group",
    "attributes": {
      "weight_names": [
        "sequential_2/conv2d_1/kernel",
        "sequential_2/conv2d_1/bias"
      ]
    }
  },
  "model_weights/conv2d_1/sequential_2": {
    "type": "group",
    "attributes": {}
  },
  "model_weights/conv2d_1/sequential_2/conv2d_1": {
    "type": "group",
    "attributes": {}
  },
  "model_weights/conv2d_1/sequential_2/conv2d_1/bias": {
    "type": "dataset",
    "shape": [
      64
    ],
    "dtype": "float32",
    "attributes": {},
    "data": [
      -0.030485844239592552,
      0.011709027923643589,
      -0.004066344350576401,
      -0.020763397216796875,
      0.026386823505163193,
      -0.011801333166658878,
      0.011672455817461014,
      -0.019756510853767395,
      -0.009242217056453228,
      0.04547618702054024,
      -0.0386609211564064,
      -0.017102334648370743,
      -0.011698481626808643,
      -0.11017001420259476,
      -0.05705641955137253,
      -0.024397900328040123,
      -0.018946606665849686,
      -0.016357433050870895,
      -0.02342020906507969,
      0.010727524757385254,
      0.03996385261416435,
      -0.0429999865591526,
      -0.04270920902490616,
      -0.013728117570281029,
      -0.021906649693846703,
      -0.08832748234272003,
      -0.019130520522594452,
      -0.02184067666530609,
      -0.01668301597237587,
      0.016144542023539543,
      -0.005425544455647469,
      0.0017490546451881528,
      -0.03010006621479988,
      -0.005784093402326107,
      0.014339949935674667,
      0.028552452102303505,
      -0.18768282234668732,
      -0.014424753375351429,
      -0.03317725285887718,
      0.018121549859642982,
      -0.02194220945239067,
      -0.13412651419639587,
      0.03989976644515991,
      -0.0004248684854246676,
      -0.0117269242182374,
      -0.014766911044716835,
      -0.013321724720299244,
      -0.05611300840973854,
      0.011958739720284939,
      0.010999188758432865,
      -0.01306081097573042,
      -0.015408067964017391,
      -0.037300631403923035,
      0.009518994018435478,
      -0.022885790094733238,
      0.003527179593220353,
      0.02017192356288433,
      -0.05198986455798149,
      -0.1085900366306305,
      -0.07692179828882217,
      -0.07825308293104172,
      -0.025609347969293594,
      0.06694933027029037,
      -0.020999563857913017
    ]
  },
  "model_weights/conv2d_1/sequential_2/conv2d_1/kernel": {
    "type": "dataset",
    "shape": [
      3,
      3,
      32,
      64
    ],
    "dtype": "float32",
    "attributes": {},
    "data": "Large dataset: 18432 elements"
  },
  "model_weights/conv2d_2": {
    "type": "group",
    "attributes": {
      "weight_names": [
        "sequential_2/conv2d_2/kernel",
        "sequential_2/conv2d_2/bias"
      ]
    }
  },
  "model_weights/conv2d_2/sequential_2": {
    "type": "group",
    "attributes": {}
  },
  "model_weights/conv2d_2/sequential_2/conv2d_2": {
    "type": "group",
    "attributes": {}
  },
  "model_weights/conv2d_2/sequential_2/conv2d_2/bias": {
    "type": "dataset",
    "shape": [
      64
    ],
    "dtype": "float32",
    "attributes": {},
    "data": [
      -0.019400596618652344,
      -0.021680204197764397,
      -0.004665673710405827,
      -0.05692615360021591,
      -0.024716060608625412,
      0.013830156065523624,
      -0.019774233922362328,
      -0.009885597974061966,
      -0.015555436722934246,
      -0.024099459871649742,
      -0.008489414118230343,
      0.04644620418548584,
      -0.014678257517516613,
      -0.027048757299780846,
      -0.008936457335948944,
      -0.017329327762126923,
      -0.009412440471351147,
      -0.028650283813476562,
      -0.009446462616324425,
      0.0017689531669020653,
      -0.006677130702883005,
      -0.050222598016262054,
      -0.014375806786119938,
      -0.014108184725046158,
      -0.017122477293014526,
      -0.030857643112540245,
      0.02303406037390232,
      -0.04452892020344734,
      -0.052328307181596756,
      -0.009437219239771366,
      0.06539034843444824,
      0.011967695318162441,
      -0.013902398757636547,
      -0.007986479438841343,
      -0.024542221799492836,
      -0.020594995468854904,
      -0.029615288600325584,
      -0.007683280855417252,
      -0.03395245224237442,
      0.004059630446135998,
      -0.03432511165738106,
      0.001109856995753944,
      -0.02374826744198799,
      -0.0005098364199511707,
      -0.014043822884559631,
      -0.0350257009267807,
      -0.0006797730457037687,
      -0.012535338290035725,
      -0.00898778811097145,
      -0.11785861849784851,
      -0.027329465374350548,
      0.03978575021028519,
      -0.03365356847643852,
      -0.0016412128461524844,
      0.027892032638192177,
      -0.02849728800356388,
      0.052609216421842575,
      0.009475593455135822,
      -0.03577853739261627,
      -0.012358523905277252,
      -0.04432453215122223,
      -0.034409184008836746,
      -0.03321998193860054,
      -0.05286343768239021
    ]
  },
  "model_weights/conv2d_2/sequential_2/conv2d_2/kernel": {
    "type": "dataset",
    "shape": [
      3,
      3,
      64,
      64
    ],
    "dtype": "float32",
    "attributes": {},
    "data": "Large dataset: 36864 elements"
  },
  "model_weights/conv2d_3": {
    "type": "group",
    "attributes": {
      "weight_names": [
        "sequential_2/conv2d_3/kernel",
        "sequential_2/conv2d_3/bias"
      ]
    }
  },
  "model_weights/conv2d_3/sequential_2": {
    "type": "group",
    "attributes": {}
  },
  "model_weights/conv2d_3/sequential_2/conv2d_3": {
    "type": "group",
    "attributes": {}
  },
  "model_weights/conv2d_3/sequential_2/conv2d_3/bias": {
    "type": "dataset",
    "shape": [
      64
    ],
    "dtype": "float32",
    "attributes": {},
    "data": [
      -0.015349693596363068,
      -0.023240650072693825,
      -0.011111831292510033,
      -0.0058766258880496025,
      -0.035269685089588165,
      -0.006990277674049139,
      -0.008594035170972347,
      -0.01115761324763298,
      -0.006923112086951733,
      0.02111848071217537,
      -0.008067662827670574,
      -0.0071923574432730675,
      -0.03312116861343384,
      -0.0011873062467202544,
      -0.009400693699717522,
      -0.006546587683260441,
      0.010802751407027245,
      -0.012699362821877003,
      -0.010552418418228626,
      0.021030617877840996,
      -0.03253251314163208,
      -0.01484117191284895,
      -0.010295798070728779,
      0.012249487452208996,
      -0.00926138460636139,
      -0.004322859458625317,
      0.01098908856511116,
      -0.0788140818476677,
      -0.00899024773389101,
      -0.01400671899318695,
      -0.002410276560112834,
      -0.007855189964175224,
      -0.050969842821359634,
      -0.01907537691295147,
      -0.010370985604822636,
      -0.0038912908639758825,
      0.019757425412535667,
      -0.03060479462146759,
      -0.00431696604937315,
      -0.010441995225846767,
      -0.009728251956403255,
      -0.02076871320605278,
      0.04744899645447731,
      0.020896680653095245,
      -0.07065996527671814,
      0.026529351249337196,
      -0.039041925221681595,
      -0.010906967334449291,
      -0.06695286929607391,
      0.02874116785824299,
      0.0018375334329903126,
      -0.018813757225871086,
      -0.007735993713140488,
      -0.004984576255083084,
      -0.03376150503754616,
      0.0007829241803847253,
      -0.00012105338828405365,
      -0.004662420134991407,
      -0.11113891750574112,
      -0.012483451515436172,
      -0.010658683255314827,
      -0.0073082842864096165,
      -0.009403319098055363,
      -0.019030949100852013
    ]
  },
  "model_weights/conv2d_3/sequential_2/conv2d_3/kernel": {
    "type": "dataset",
    "shape": [
      3,
      3,
      64,
      64
    ],
    "dtype": "float32",
    "attributes": {},
    "data": "Large dataset: 36864 elements"
  },
  "model_weights/conv2d_4": {
    "type": "group",
    "attributes": {
      "weight_names": [
        "sequential_2/conv2d_4/kernel",
        "sequential_2/conv2d_4/bias"
      ]
    }
  },
  "model_weights/conv2d_4/sequential_2": {
    "type": "group",
    "attributes": {}
  },
  "model_weights/conv2d_4/sequential_2/conv2d_4": {
    "type": "group",
    "attributes": {}
  },
  "model_weights/conv2d_4/sequential_2/conv2d_4/bias": {
    "type": "dataset",
    "shape": [
      64
    ],
    "dtype": "float32",
    "attributes": {},
    "data": [
      -0.01743456721305847,
      -0.0191047340631485,
      0.00021482727606780827,
      0.10026632994413376,
      -0.006435776129364967,
      -0.013542325235903263,
      -0.017180267721414566,
      -0.00490650674328208,
      0.019581925123929977,
      -0.011358873918652534,
      0.014369280077517033,
      -0.00438594538718462,
      -0.00460688816383481,
      -0.019574346020817757,
      -0.029860706999897957,
      -0.024579370394349098,
      0.010987733490765095,
      -0.021901404485106468,
      -0.005380347836762667,
      -0.008544756099581718,
      -0.027229277417063713,
      -0.009936741553246975,
      0.0065666367299854755,
      0.056025855243206024,
      -0.02921353466808796,
      -0.005299050360918045,
      0.005964256823062897,
      -0.02093748189508915,
      -0.017987079918384552,
      0.005820138845592737,
      -0.02415059506893158,
      -0.008919922634959221,
      -0.0430072583258152,
      0.07512430101633072,
      -0.0345686674118042,
      -0.007343434263020754,
      -0.011611497029662132,
      -0.03227166458964348,
      -0.0633397027850151,
      -0.04113391786813736,
      0.002619893988594413,
      0.02495647594332695,
      -0.030534112825989723,
      0.007627028040587902,
      -0.0056370641104876995,
      0.012422719039022923,
      0.0038578154053539038,
      -0.011261151172220707,
      0.002775374334305525,
      -0.007453568745404482,
      -0.013743159361183643,
      -0.008547402918338776,
      -0.009718160144984722,
      0.04356394335627556,
      0.008669817820191383,
      -0.006460606586188078,
      0.0041886004619300365,
      0.003410790115594864,
      -0.009368226863443851,
      -0.018404236063361168,
      -0.013652779161930084,
      0.002642198698595166,
      0.024689210578799248,
      0.006959036458283663
    ]
  },
  "model_weights/conv2d_4/sequential_2/conv2d_4/kernel": {
    "type": "dataset",
    "shape": [
      3,
      3,
      64,
      64
    ],
    "dtype": "float32",
    "attributes": {},
    "data": "Large dataset: 36864 elements"
  },
  "model_weights/conv2d_5": {
    "type": "group",
    "attributes": {
      "weight_names": [
        "sequential_2/conv2d_5/kernel",
        "sequential_2/conv2d_5/bias"
      ]
    }
  },
  "model_weights/conv2d_5/sequential_2": {
    "type": "group",
    "attributes": {}
  },
  "model_weights/conv2d_5/sequential_2/conv2d_5": {
    "type": "group",
    "attributes": {}
  },
  "model_weights/conv2d_5/sequential_2/conv2d_5/bias": {
    "type": "dataset",
    "shape": [
      64
    ],
    "dtype": "float32",
    "attributes": {},
    "data": [
      0.015333523042500019,
      0.009005354717373848,
      -0.02065976709127426,
      -0.018341291695833206,
      -0.010584204457700253,
      0.12652704119682312,
      -0.008464891463518143,
      0.010140339843928814,
      0.01927175372838974,
      -0.011095108464360237,
      -0.005655648652464151,
      -0.01656191051006317,
      -0.008196304552257061,
      0.016769928857684135,
      -0.006119983736425638,
      0.021725928410887718,
      -0.11963506788015366,
      -0.014525157399475574,
      -0.009400376118719578,
      0.01184139959514141,
      -0.013814523816108704,
      0.03895129635930061,
      -0.020994724705815315,
      0.00021083455067127943,
      -0.018447065725922585,
      -0.0119608324021101,
      0.01851329579949379,
      -0.012687880545854568,
      -0.00586052006110549,
      -0.02315669134259224,
      -0.030031269416213036,
      0.009846487082540989,
      -0.012869946658611298,
      -0.009007018059492111,
      0.017853116616606712,
      0.1265462338924408,
      0.005881086457520723,
      -0.005947698839008808,
      -0.015360606834292412,
      -0.008238377049565315,
      -0.01832803711295128,
      -0.04607841372489929,
      -0.021719280630350113,
      0.01052041631191969,
      -0.01304118987172842,
      0.006006387993693352,
      0.06040315702557564,
      -0.007614928297698498,
      0.11321835219860077,
      -0.06381503492593765,
      0.01439830381423235,
      0.04371090605854988,
      -0.0030430685728788376,
      -0.007323598489165306,
      0.05898583307862282,
      0.0017010415904223919,
      0.06804461032152176,
      -0.016311053186655045,
      -0.004690484143793583,
      -0.011421285569667816,
      -0.017947401851415634,
      -0.008318240754306316,
      -0.011964973993599415,
      -0.015955906361341476
    ]
  },
  "model_weights/conv2d_5/sequential_2/conv2d_5/kernel": {
    "type": "dataset",
    "shape": [
      3,
      3,
      64,
      64
    ],
    "dtype": "float32",
    "attributes": {},
    "data": "Large dataset: 36864 elements"
  },
  "model_weights/dense": {
    "type": "group",
    "attributes": {
      "weight_names": [
        "sequential_2/dense/kernel",
        "sequential_2/dense/bias"
      ]
    }
  },
  "model_weights/dense/sequential_2": {
    "type": "group",
    "attributes": {}
  },
  "model_weights/dense/sequential_2/dense": {
    "type": "group",
    "attributes": {}
  },
  "model_weights/dense/sequential_2/dense/bias": {
    "type": "dataset",
    "shape": [
      64
    ],
    "dtype": "float32",
    "attributes": {},
    "data": [
      -0.15540987253189087,
      0.0072303530760109425,
      0.0808042585849762,
      -0.17796695232391357,
      0.019490668550133705,
      0.045809753239154816,
      -0.11730016022920609,
      -0.1882399320602417,
      0.16985808312892914,
      -0.011715268716216087,
      -0.010697918012738228,
      -0.04377179965376854,
      -0.011683247983455658,
      0.01815306395292282,
      -0.015999440103769302,
      0.016437960788607597,
      -0.1644877791404724,
      -0.01589924283325672,
      -0.03771751746535301,
      -0.014859836548566818,
      -0.17361406981945038,
      0.18857693672180176,
      -0.184022918343544,
      0.04834382236003876,
      -0.12769603729248047,
      -0.028897805139422417,
      -0.012078924104571342,
      0.16756287217140198,
      -0.013507160358130932,
      -0.016454404219985008,
      -0.008960156701505184,
      -0.0027218160685151815,
      -0.012547902762889862,
      -0.006834860425442457,
      -0.025443630293011665,
      -0.0378323495388031,
      -0.0061761680990457535,
      -0.0204660352319479,
      -0.01084179524332285,
      -0.16160078346729279,
      0.1849314570426941,
      0.0,
      0.02510972134768963,
      0.18033000826835632,
      -0.03487083688378334,
      0.023365477100014687,
      -0.024871347472071648,
      0.173007994890213,
      0.05111880600452423,
      0.03767593577504158,
      -0.01218551304191351,
      -0.020967159420251846,
      -0.12654951214790344,
      -0.1670527458190918,
      -0.023434778675436974,
      0.013141411356627941,
      0.13438944518566132,
      0.16635024547576904,
      -0.012296195141971111,
      0.008721942082047462,
      0.1750401109457016,
      0.08269426971673965,
      -0.019303416833281517,
      -0.04234166815876961
    ]
  },
  "model_weights/dense/sequential_2/dense/kernel": {
    "type": "dataset",
    "shape": [
      256,
      64
    ],
    "dtype": "float32",
    "attributes": {},
    "data": "Large dataset: 16384 elements"
  },
  "model_weights/dense_1": {
    "type": "group",
    "attributes": {
      "weight_names": [
        "sequential_2/dense_1/kernel",
        "sequential_2/dense_1/bias"
      ]
    }
  },
  "model_weights/dense_1/sequential_2": {
    "type": "group",
    "attributes": {}
  },
  "model_weights/dense_1/sequential_2/dense_1": {
    "type": "group",
    "attributes": {}
  },
  "model_weights/dense_1/sequential_2/dense_1/bias": {
    "type": "dataset",
    "shape": [
      2
    ],
    "dtype": "float32",
    "attributes": {},
    "data": [
      -0.17022699117660522,
      0.17022700607776642
    ]
  },
  "model_weights/dense_1/sequential_2/dense_1/kernel": {
    "type": "dataset",
    "shape": [
      64,
      2
    ],
    "dtype": "float32",
    "attributes": {},
    "data": [
      [
        -0.06338217854499817,
        -0.2151065319776535
      ],
      [
        -0.10177207738161087,
        -0.05994252488017082
      ],
      [
        0.16268643736839294,
        0.19895868003368378
      ],
      [
        0.19903330504894257,
        -0.2871705889701843
      ],
      [
        -0.17896486818790436,
        -0.08038198202848434
      ],
      [
        -0.008450441062450409,
        -0.012131365947425365
      ],
      [
        -0.049674518406391144,
        -0.07532316446304321
      ],
      [
        0.30835267901420593,
        0.20830993354320526
      ],
      [
        0.057324059307575226,
        0.2982562184333801
      ],
      [
        -0.21041108667850494,
        -0.13374745845794678
      ],
      [
        -0.10630296170711517,
        -0.15658174455165863
      ],
      [
        0.10394804924726486,
        0.058035895228385925
      ],
      [
        0.2294161021709442,
        -0.16636177897453308
      ],
      [
        -0.13457664847373962,
        -0.04949423298239708
      ],
      [
        0.25823312997817993,
        0.12284479290246964
      ],
      [
        0.18389230966567993,
        0.23482587933540344
      ],
      [
        0.1279318928718567,
        -0.07153955847024918
      ],
      [
        -0.08187276124954224,
        -0.10813391208648682
      ],
      [
        -0.1797650158405304,
        -0.1012701764702797
      ],
      [
        -0.06984870135784149,
        0.05219763144850731
      ],
      [
        0.13260187208652496,
        -0.041335057467222214
      ],
      [
        0.10938921570777893,
        0.21606138348579407
      ],
      [
        0.21878810226917267,
        0.0028947843238711357
      ],
      [
        -0.20699378848075867,
        -0.1478542536497116
      ],
      [
        -0.15361742675304413,
        -0.2177913337945938
      ],
      [
        0.1550600677728653,
        0.044591329991817474
      ],
      [
        0.128249391913414,
        -0.07563208788633347
      ],
      [
        -0.06528173387050629,
        0.0651380866765976
      ],
      [
        0.2874661087989807,
        0.22184042632579803
      ],
      [
        0.07735088467597961,
        -0.14720414578914642
      ],
      [
        0.22792749106884003,
        0.012006116099655628
      ],
      [
        0.004833002109080553,
        0.2857067584991455
      ],
      [
        0.1077362447977066,
        0.0515032596886158
      ],
      [
        -0.011355994269251823,
        0.19187268614768982
      ],
      [
        0.1668427437543869,
        -0.03773706033825874
      ],
      [
        -0.042217906564474106,
        -0.06623098254203796
      ],
      [
        0.18982036411762238,
        0.08829499781131744
      ],
      [
        0.11060153692960739,
        0.12424071878194809
      ],
      [
        0.06240454688668251,
        0.07531021535396576
      ],
      [
        0.00154980702791363,
        -0.2868413031101227
      ],
      [
        -0.256887823343277,
        0.33284029364585876
      ],
      [
        0.2271883487701416,
        -0.055033981800079346
      ],
      [
        -0.2919634282588959,
        -0.04686287045478821
      ],
      [
        -0.21748755872249603,
        -0.012811003252863884
      ],
      [
        0.033606644719839096,
        0.033791277557611465
      ],
      [
        0.0210808627307415,
        0.19777962565422058
      ],
      [
        0.07042012363672256,
        -0.08454684168100357
      ],
      [
        -0.0790271982550621,
        0.28366121649742126
      ],
      [
        -0.11977631598711014,
        0.04806901887059212
      ],
      [
        -0.11727675050497055,
        0.2327602058649063
      ],
      [
        0.25630253553390503,
        0.07627855986356735
      ],
      [
        -0.13269339501857758,
        0.14342215657234192
      ],
      [
        -0.10056010633707047,
        -0.2150701880455017
      ],
      [
        0.24267742037773132,
        -0.2733449339866638
      ],
      [
        0.1904602199792862,
        0.16210055351257324
      ],
      [
        -0.1701498031616211,
        0.15650972723960876
      ],
      [
        0.1282273679971695,
        0.25232598185539246
      ],
      [
        -0.2075130194425583,
        0.026137296110391617
      ],
      [
        -0.1687493473291397,
        -0.1922311931848526
      ],
      [
        -0.2269316017627716,
        0.2630937397480011
      ],
      [
        -0.23633775115013123,
        0.05003133788704872
      ],
      [
        -0.17750084400177002,
        -0.07601701468229294
      ],
      [
        0.05435933917760849,
        0.04015250876545906
      ],
      [
        0.1111433207988739,
        -0.17921999096870422
      ]
    ]
  },
  "model_weights/flatten": {
    "type": "group",
    "attributes": {
      "weight_names": []
    }
  },
  "model_weights/max_pooling2d": {
    "type": "group",
    "attributes": {
      "weight_names": []
    }
  },
  "model_weights/max_pooling2d_1": {
    "type": "group",
    "attributes": {
      "weight_names": []
    }
  },
  "model_weights/max_pooling2d_2": {
    "type": "group",
    "attributes": {
      "weight_names": []
    }
  },
  "model_weights/max_pooling2d_3": {
    "type": "group",
    "attributes": {
      "weight_names": []
    }
  },
  "model_weights/max_pooling2d_4": {
    "type": "group",
    "attributes": {
      "weight_names": []
    }
  },
  "model_weights/max_pooling2d_5": {
    "type": "group",
    "attributes": {
      "weight_names": []
    }
  },
  "model_weights/sequential": {
    "type": "group",
    "attributes": {
      "weight_names": []
    }
  },
  "model_weights/sequential_1": {
    "type": "group",
    "attributes": {
      "weight_names": []
    }
  },
  "model_weights/top_level_model_weights": {
    "type": "group",
    "attributes": {
      "weight_names": []
    }
  },
  "optimizer_weights": {
    "type": "group",
    "attributes": {
      "weight_names": [
        "adam/iteration",
        "adam/learning_rate",
        "adam/sequential_2_conv2d_kernel_momentum",
        "adam/sequential_2_conv2d_kernel_velocity",
        "adam/sequential_2_conv2d_bias_momentum",
        "adam/sequential_2_conv2d_bias_velocity",
        "adam/sequential_2_conv2d_1_kernel_momentum",
        "adam/sequential_2_conv2d_1_kernel_velocity",
        "adam/sequential_2_conv2d_1_bias_momentum",
        "adam/sequential_2_conv2d_1_bias_velocity",
        "adam/sequential_2_conv2d_2_kernel_momentum",
        "adam/sequential_2_conv2d_2_kernel_velocity",
        "adam/sequential_2_conv2d_2_bias_momentum",
        "adam/sequential_2_conv2d_2_bias_velocity",
        "adam/sequential_2_conv2d_3_kernel_momentum",
        "adam/sequential_2_conv2d_3_kernel_velocity",
        "adam/sequential_2_conv2d_3_bias_momentum",
        "adam/sequential_2_conv2d_3_bias_velocity",
        "adam/sequential_2_conv2d_4_kernel_momentum",
        "adam/sequential_2_conv2d_4_kernel_velocity",
        "adam/sequential_2_conv2d_4_bias_momentum",
        "adam/sequential_2_conv2d_4_bias_velocity",
        "adam/sequential_2_conv2d_5_kernel_momentum",
        "adam/sequential_2_conv2d_5_kernel_velocity",
        "adam/sequential_2_conv2d_5_bias_momentum",
        "adam/sequential_2_conv2d_5_bias_velocity",
        "adam/sequential_2_dense_kernel_momentum",
        "adam/sequential_2_dense_kernel_velocity",
        "adam/sequential_2_dense_bias_momentum",
        "adam/sequential_2_dense_bias_velocity",
        "adam/sequential_2_dense_1_kernel_momentum",
        "adam/sequential_2_dense_1_kernel_velocity",
        "adam/sequential_2_dense_1_bias_momentum",
        "adam/sequential_2_dense_1_bias_velocity"
      ]
    }
  },
  "optimizer_weights/adam": {
    "type": "group",
    "attributes": {}
  },
  "optimizer_weights/adam/iteration": {
    "type": "dataset",
    "shape": [],
    "dtype": "int64",
    "attributes": {},
    "data": 1630
  },
  "optimizer_weights/adam/learning_rate": {
    "type": "dataset",
    "shape": [],
    "dtype": "float32",
    "attributes": {},
    "data": 0.0010000000474974513
  },
  "optimizer_weights/adam/sequential_2_conv2d_1_bias_momentum": {
    "type": "dataset",
    "shape": [
      64
    ],
    "dtype": "float32",
    "attributes": {},
    "data": [
      3.9517566619906574e-05,
      -0.0011674802517518401,
      -0.0023676741402596235,
      -5.067718689133471e-07,
      -0.002390142995864153,
      0.0011716303415596485,
      -0.0029763660859316587,
      2.073734322038945e-06,
      -0.0047185467556118965,
      -0.0040993355214595795,
      -0.0017957167001441121,
      0.00029513996560126543,
      -2.2610160499425547e-07,
      5.351428171707084e-07,
      -0.0011585813481360674,
      -0.0005535297677852213,
      1.1489351486643692e-37,
      -0.004867543000727892,
      -6.199325434863567e-05,
      -0.0034681495744735003,
      0.0030385456047952175,
      3.9043086871970445e-05,
      -4.499273472902132e-06,
      3.713497790158726e-05,
      -0.0032420859206467867,
      0.02126437984406948,
      0.0009053608519025147,
      1.6448771020804998e-06,
      0.0015278244391083717,
      -0.0010439667385071516,
      5.011777102481574e-05,
      -0.0008808120619505644,
      -0.003825148567557335,
      0.009442747570574284,
      -0.008886034600436687,
      -0.00257349805906415,
      0.00014039705274626613,
      -1.7337860924726556e-08,
      3.317664231872186e-05,
      0.0034650047309696674,
      -1.2019017958664335e-06,
      0.004271829500794411,
      -0.004059943836182356,
      -0.002345310291275382,
      -0.002686087042093277,
      2.4154606266535428e-12,
      -0.004649993497878313,
      0.00012200140190543607,
      0.0014132149517536163,
      -0.003203979227691889,
      -0.002463111886754632,
      -0.001096528023481369,
      -0.0016288610640913248,
      -0.0030531552620232105,
      8.530536845484382e-13,
      -0.0026465347036719322,
      -0.0026767232920974493,
      0.009152468293905258,
      0.004388310015201569,
      -0.00013647062587551773,
      -0.004007664509117603,
      -1.675272869761102e-06,
      -0.00635913759469986,
      -7.78038042881235e-07
    ]
  },
  "optimizer_weights/adam/sequential_2_conv2d_1_bias_velocity": {
    "type": "dataset",
    "shape": [
      64
    ],
    "dtype": "float32",
    "attributes": {},
    "data": [
      1.9354565665707923e-05,
      0.00012568949023261666,
      0.0001521540543762967,
      1.0041186015996573e-07,
      0.0003117018786724657,
      1.1597637239901815e-05,
      0.00014797014591749758,
      4.077935955137946e-06,
      0.0005134842940606177,
      0.0003800301346927881,
      0.00034115734160877764,
      2.388401117059402e-05,
      1.0250100501707493e-07,
      1.5642821381334215e-05,
      0.0009131869301199913,
      0.00031688035232946277,
      3.653696095673453e-11,
      0.0009572980925440788,
      8.580386179346533e-07,
      0.00020315252186264843,
      0.0009735733037814498,
      4.419347897055559e-05,
      4.2470528569538146e-05,
      5.2972900448367e-06,
      0.00046973623102530837,
      0.003639061702415347,
      5.478650928125717e-05,
      3.984234808740439e-07,
      6.39942390989745e-06,
      2.294248952239286e-05,
      1.4398395933312713e-06,
      2.9396256650215946e-05,
      0.0007122533279471099,
      1.8111240933649242e-05,
      0.00031760765705257654,
      0.00019492710998747498,
      0.0006071206298656762,
      1.2107462254995482e-10,
      5.1715451263589785e-06,
      0.0007283635204657912,
      2.763788664594813e-08,
      0.0008931329357437789,
      0.0007933456217870116,
      0.0001554229820612818,
      0.00019812404934782535,
      3.512828222751452e-11,
      0.0004422219644766301,
      5.451816105050966e-05,
      5.236740889813518e-06,
      0.0002602663589641452,
      0.00013765503535978496,
      0.00019663070270325989,
      0.0005205923807807267,
      0.0002531103673391044,
      3.868492726155637e-08,
      0.00026046077255159616,
      0.00044822890777140856,
      0.002475777640938759,
      0.0009280646336264908,
      0.00025379168801009655,
      0.0016592429019510746,
      2.734058398345951e-05,
      0.0005652719992212951,
      7.505110261263326e-06
    ]
  },
  "optimizer_weights/adam/sequential_2_conv2d_1_kernel_momentum": {
    "type": "dataset",
    "shape": [
      3,
      3,
      32,
      64
    ],
    "dtype": "float32",
    "attributes": {},
    "data": "Large dataset: 18432 elements"
  },
  "optimizer_weights/adam/sequential_2_conv2d_1_kernel_velocity": {
    "type": "dataset",
    "shape": [
      3,
      3,
      32,
      64
    ],
    "dtype": "float32",
    "attributes": {},
    "data": "Large dataset: 18432 elements"
  },
  "optimizer_weights/adam/sequential_2_conv2d_2_bias_momentum": {
    "type": "dataset",
    "shape": [
      64
    ],
    "dtype": "float32",
    "attributes": {},
    "data": [
      8.451517749869743e-30,
      -1.8705119050888008e-11,
      1.32404668826136e-11,
      3.073170955758542e-05,
      2.2415513889484373e-10,
      -0.0030818465165793896,
      -0.0002496441302355379,
      1.0030760666523975e-09,
      -0.0012730105081573129,
      6.54024778778961e-10,
      1.2551407585919495e-20,
      -0.00029922695830464363,
      1.0803417009395466e-37,
      -0.0010447566164657474,
      -0.00027070645592175424,
      5.581843360869801e-16,
      -0.0007261624559760094,
      0.0005183297325856984,
      9.196902101393789e-05,
      2.3979650904948357e-06,
      1.076938563541026e-37,
      0.0019343735184520483,
      5.259060449937647e-21,
      1.2237501025288074e-21,
      1.153397331390288e-37,
      -0.0007252400973811746,
      0.0013856814475730062,
      0.00039745590765960515,
      0.0005456700455397367,
      6.915259291417897e-06,
      -7.106456905603409e-06,
      0.003370921825990081,
      9.327080349883111e-28,
      -3.1335240180396795e-08,
      -0.004240921698510647,
      -0.0014843816170468926,
      -3.7112868085387163e-06,
      -0.0018843308789655566,
      -1.9452378943740634e-11,
      -0.0003851693472824991,
      -0.00011372716107871383,
      0.0013927347026765347,
      -0.0003856769762933254,
      -0.0005505590233951807,
      0.0009049109648913145,
      -0.00015072940732352436,
      -2.9702896426897496e-06,
      1.1686071370259468e-37,
      9.751859909867822e-12,
      -0.0003732886689249426,
      0.0007014521397650242,
      -0.0009032978559844196,
      9.693136384771751e-26,
      -2.283545882164617e-06,
      -0.0006907564820721745,
      -0.0020338569302111864,
      -0.0006766809965483844,
      -0.0019599366933107376,
      0.002401777310296893,
      3.737572740192263e-08,
      -0.00046570098493248224,
      -7.565124178654514e-06,
      -7.474023732356727e-06,
      0.0007400891627185047
    ]
  },
  "optimizer_weights/adam/sequential_2_conv2d_2_bias_velocity": {
    "type": "dataset",
    "shape": [
      64
    ],
    "dtype": "float32",
    "attributes": {},
    "data": [
      2.9816946134353373e-10,
      3.122607450389836e-10,
      2.9368194987000606e-07,
      1.6939220586209558e-05,
      1.9944186302467415e-09,
      0.00016556248010601848,
      2.151585795218125e-05,
      2.5504643536011784e-11,
      6.972991104703397e-05,
      9.194008043778013e-08,
      1.6066977082118683e-08,
      2.175950794480741e-05,
      1.850942454861837e-10,
      7.545333210146055e-05,
      1.1899958735739347e-05,
      3.447162347236521e-11,
      6.205721001606435e-05,
      1.8283713870914653e-05,
      1.1362831173755694e-06,
      5.007175332139013e-07,
      2.3663344563829014e-06,
      3.217633638996631e-05,
      2.4111653118552567e-08,
      6.234213145717149e-11,
      6.351918102609488e-08,
      6.274734914768487e-05,
      8.89693183125928e-06,
      2.3642485757591203e-05,
      1.736729609547183e-05,
      4.006451854365878e-05,
      3.5085435229120776e-05,
      0.0001663474104134366,
      7.463850693056884e-08,
      3.2114176207187484e-08,
      0.00024431964266113937,
      2.2506194000015967e-05,
      2.407505519386177e-07,
      0.0001179710088763386,
      2.9386098958639195e-06,
      2.8903286874992773e-05,
      7.5568800639302935e-06,
      3.5612265492090955e-05,
      1.774084557837341e-05,
      5.9565252740867436e-05,
      2.102948201354593e-05,
      8.319791049871128e-06,
      7.902851706376168e-09,
      9.508351050957486e-11,
      1.0783646331447017e-07,
      3.9233509596670046e-05,
      3.590847700252198e-05,
      2.5819210350164212e-05,
      4.0810091417320393e-10,
      1.0764662772277944e-10,
      1.5920588339213282e-05,
      4.4427288230508566e-05,
      1.5439729395438917e-05,
      0.00014101028500590473,
      2.5987488697865047e-05,
      1.819835532268499e-10,
      3.56244963768404e-05,
      5.374303668759239e-07,
      7.4067370405828115e-06,
      3.704676782945171e-05
    ]
  },
  "optimizer_weights/adam/sequential_2_conv2d_2_kernel_momentum": {
    "type": "dataset",
    "shape": [
      3,
      3,
      64,
      64
    ],
    "dtype": "float32",
    "attributes": {},
    "data": "Large dataset: 36864 elements"
  },
  "optimizer_weights/adam/sequential_2_conv2d_2_kernel_velocity": {
    "type": "dataset",
    "shape": [
      3,
      3,
      64,
      64
    ],
    "dtype": "float32",
    "attributes": {},
    "data": "Large dataset: 36864 elements"
  },
  "optimizer_weights/adam/sequential_2_conv2d_3_bias_momentum": {
    "type": "dataset",
    "shape": [
      64
    ],
    "dtype": "float32",
    "attributes": {},
    "data": [
      1.099293309786584e-37,
      0.00030568725196644664,
      -1.1298188592218044e-37,
      2.760043287253211e-07,
      -6.786471931263804e-05,
      1.1030681836417208e-37,
      4.534432829217394e-09,
      3.358957540887108e-29,
      -0.0003167604736518115,
      -0.001537882606498897,
      1.1333365667827683e-37,
      1.0646859460806011e-37,
      -1.3212570593168493e-05,
      1.4892773947394744e-07,
      1.1257648467125741e-37,
      2.1441188437165692e-05,
      -0.001014228444546461,
      -9.619444643598607e-19,
      1.1140950573094313e-37,
      -0.00136181665584445,
      5.77730247641739e-07,
      -3.620427378336899e-06,
      1.1135003462411719e-37,
      -0.0007183737470768392,
      -0.00020736358419526368,
      -3.0044735467527062e-05,
      -0.0003286904830019921,
      0.00013352310634218156,
      -1.0773537439945358e-07,
      -2.4237628167611547e-05,
      6.301329449343029e-07,
      1.1570829705592166e-37,
      -0.0007195606594905257,
      0.0010167764266952872,
      1.6997089915093966e-05,
      1.5643364292827755e-07,
      -0.0009410795755684376,
      1.133003057748259e-37,
      1.103638119753131e-37,
      1.1523625005003534e-37,
      1.149092430404005e-37,
      -1.9626045286713634e-06,
      -0.00040763593278825283,
      -0.000505296397022903,
      -5.350612991605885e-05,
      -0.0019088679691776633,
      0.0023780474439263344,
      -0.0004821231705136597,
      -0.00043534906581044197,
      -0.0012371297925710678,
      -2.4628920982650016e-06,
      1.154214344446928e-37,
      1.915282909314977e-20,
      5.726698191210744e-07,
      1.0820601412723174e-37,
      -1.3377772347649423e-16,
      1.0810061406193908e-37,
      1.157238346532941e-37,
      0.003990200813859701,
      1.0781180084324788e-37,
      1.111458598326712e-37,
      9.721825305002178e-20,
      -1.0214225909521701e-07,
      1.1123461247220768e-37
    ]
  },
  "optimizer_weights/adam/sequential_2_conv2d_3_bias_velocity": {
    "type": "dataset",
    "shape": [
      64
    ],
    "dtype": "float32",
    "attributes": {},
    "data": [
      5.492461953998662e-12,
      3.492226096568629e-05,
      6.665409557626845e-09,
      6.483468951046234e-06,
      6.472685527114663e-06,
      3.913017021517362e-09,
      2.247194608173686e-08,
      8.839650789127518e-09,
      1.5983918274287134e-05,
      5.9229987527942285e-05,
      1.0492557045438389e-08,
      2.0744762352364887e-08,
      7.416917469527107e-06,
      5.702388534700731e-07,
      6.279889108729009e-11,
      5.879923631324502e-11,
      3.1301173294195905e-05,
      2.8419473441232412e-09,
      1.0650496456987568e-10,
      2.525653508200776e-05,
      1.7618585843592882e-05,
      1.5826425681098044e-07,
      1.0894380536585757e-10,
      5.425218205346027e-06,
      1.0681093044695444e-05,
      4.794240453520615e-07,
      4.818164143216563e-06,
      2.524293222450069e-06,
      2.7968728772975737e-06,
      9.46207728702575e-06,
      4.1155949475069065e-06,
      2.41691280704337e-12,
      1.7159829440061003e-05,
      1.481601702835178e-05,
      6.48083005216904e-06,
      7.720250749798652e-08,
      3.963799827033654e-05,
      6.1321294708704954e-09,
      4.297179972967413e-11,
      1.2204822930073078e-08,
      2.1213144574261378e-09,
      1.0099183782585897e-06,
      9.904284524964169e-06,
      2.714114452828653e-05,
      1.0154735718970187e-05,
      2.7784246412920766e-05,
      1.77119072759524e-05,
      7.28656823412166e-06,
      1.3040151316090487e-05,
      5.287283056532033e-05,
      1.7111702277361474e-07,
      5.194835533961495e-11,
      1.357769785492735e-09,
      1.3070882687316043e-07,
      1.6228605090873316e-06,
      7.778471200481363e-09,
      3.069996479254655e-10,
      3.206869791938516e-08,
      8.653352415421978e-05,
      1.6335472974304821e-09,
      6.088148318816877e-10,
      1.8610943897101606e-08,
      2.990146299453045e-07,
      1.6255872878900846e-06
    ]
  },
  "optimizer_weights/adam/sequential_2_conv2d_3_kernel_momentum": {
    "type": "dataset",
    "shape": [
      3,
      3,
      64,
      64
    ],
    "dtype": "float32",
    "attributes": {},
    "data": "Large dataset: 36864 elements"
  },
  "optimizer_weights/adam/sequential_2_conv2d_3_kernel_velocity": {
    "type": "dataset",
    "shape": [
      3,
      3,
      64,
      64
    ],
    "dtype": "float32",
    "attributes": {},
    "data": "Large dataset: 36864 elements"
  },
  "optimizer_weights/adam/sequential_2_conv2d_4_bias_momentum": {
    "type": "dataset",
    "shape": [
      64
    ],
    "dtype": "float32",
    "attributes": {},
    "data": [
      1.2435169082891662e-05,
      3.1237104583763676e-26,
      1.9516582360629142e-12,
      -0.003060931572690606,
      5.096830508561865e-18,
      1.1097873537262197e-37,
      6.8213528720662e-05,
      1.4756370347868142e-08,
      -0.0006982420454733074,
      3.9102516893763095e-05,
      -0.00036531168734654784,
      -9.932298326020828e-07,
      4.270739460088838e-22,
      0.002555563347414136,
      -1.1180459296156187e-05,
      1.1424900725594922e-37,
      6.626313364677117e-08,
      8.388239816914131e-29,
      2.491725535946898e-05,
      -1.382939899485791e-06,
      1.1365436345001606e-37,
      3.9853918565313506e-07,
      1.5908630155761519e-18,
      -0.00032569392351433635,
      0.00010292180377291515,
      7.211099841697433e-07,
      0.00011594843817874789,
      6.808459147578105e-05,
      0.0014937532832846045,
      -0.00017413875320926309,
      0.00206997012719512,
      1.0981006366376279e-37,
      0.0020267213694751263,
      -0.001752215321175754,
      -0.0001717297127470374,
      2.7388198349300165e-29,
      1.0643106222999164e-37,
      3.1924209906719625e-05,
      -0.00021101493621245027,
      0.0004873762954957783,
      -2.074389371387042e-08,
      -0.00039093493251129985,
      1.1101479918989983e-37,
      -7.692633516853675e-06,
      1.878483116381813e-24,
      -1.804136081773322e-05,
      -0.00013936248433310539,
      1.11378991055584e-37,
      0.0018538970034569502,
      1.0811570324380293e-37,
      5.8525667554931715e-05,
      2.887898190984879e-19,
      0.0016538837226107717,
      -0.000535914208739996,
      -0.0003939125454053283,
      1.1371639052524093e-37,
      0.00029381513013504446,
      0.0008264994830824435,
      1.082465284684323e-37,
      -0.001221820362843573,
      1.078995893894409e-37,
      5.5338583479169756e-05,
      -0.0001459156337659806,
      4.959745638188906e-05
    ]
  },
  "optimizer_weights/adam/sequential_2_conv2d_4_bias_velocity": {
    "type": "dataset",
    "shape": [
      64
    ],
    "dtype": "float32",
    "attributes": {},
    "data": [
      2.44916122937866e-07,
      5.259334981411179e-11,
      1.0520480486775341e-08,
      8.338245970662683e-05,
      6.316446388154873e-08,
      5.73678676119016e-07,
      7.705203870500554e-07,
      1.6270216747216182e-06,
      1.5640720221199444e-06,
      2.8221427328389836e-07,
      1.1433260624471586e-05,
      7.371317565230129e-07,
      1.2479539623910796e-10,
      4.398073360789567e-05,
      4.246270890462256e-09,
      5.935429925330027e-09,
      1.2071964192728046e-05,
      2.1166449926113273e-08,
      5.891584351047641e-06,
      1.251635524113226e-07,
      1.5976255873795253e-09,
      3.4046258861053502e-06,
      6.636378202529158e-07,
      1.3064220183878206e-05,
      8.36310391605366e-07,
      1.6875401342986152e-07,
      4.56693078376702e-06,
      1.127091422858939e-06,
      2.3570921257487498e-05,
      1.36455373649369e-05,
      3.978845779784024e-05,
      2.398870213582427e-09,
      1.3332138223631773e-05,
      2.6842508304980583e-05,
      1.3829083400196396e-05,
      9.430918268549249e-10,
      9.168523007474505e-08,
      1.187939960800577e-05,
      4.08615642299992e-06,
      2.4232636860688217e-05,
      3.286123956058873e-06,
      1.00382940217969e-05,
      1.0934206873258745e-09,
      1.6625628632027656e-05,
      4.6010580234678855e-08,
      8.582198915974004e-07,
      1.7930096873897128e-05,
      7.658603196070146e-10,
      1.6787731510703452e-05,
      6.989709788740583e-08,
      1.387980501021957e-05,
      1.0981435139001405e-07,
      3.946308061131276e-05,
      2.3434889953932725e-05,
      6.609600973206398e-07,
      2.402566146031404e-08,
      7.768366231175605e-06,
      8.287537639262155e-06,
      1.5975239187060453e-10,
      1.2121879080950748e-05,
      8.537489465387793e-11,
      9.363973731524311e-06,
      2.2286028979578987e-05,
      4.222202733217273e-06
    ]
  },
  "optimizer_weights/adam/sequential_2_conv2d_4_kernel_momentum": {
    "type": "dataset",
    "shape": [
      3,
      3,
      64,
      64
    ],
    "dtype": "float32",
    "attributes": {},
    "data": "Large dataset: 36864 elements"
  },
  "optimizer_weights/adam/sequential_2_conv2d_4_kernel_velocity": {
    "type": "dataset",
    "shape": [
      3,
      3,
      64,
      64
    ],
    "dtype": "float32",
    "attributes": {},
    "data": "Large dataset: 36864 elements"
  },
  "optimizer_weights/adam/sequential_2_conv2d_5_bias_momentum": {
    "type": "dataset",
    "shape": [
      64
    ],
    "dtype": "float32",
    "attributes": {},
    "data": [
      -1.1901414836756885e-05,
      2.747256065175211e-23,
      1.0780354999788994e-37,
      1.066342168761556e-37,
      -3.179018648324927e-08,
      -0.0035405957605689764,
      1.1732107948448238e-37,
      1.1666915059732762e-37,
      -2.888137345857171e-15,
      1.1570465367991442e-37,
      -3.26409704878161e-17,
      1.0793479000686474e-37,
      5.050594233110256e-31,
      3.4026804576359995e-31,
      1.0012230815332204e-30,
      -0.0009074840345419943,
      0.005156080238521099,
      1.1255272985969018e-37,
      1.0878976143630631e-37,
      1.1709702867561841e-37,
      6.676532475491448e-22,
      -2.3965671971382108e-06,
      7.110367845073079e-32,
      -3.66306068144695e-07,
      1.239468292624224e-05,
      0.0007202367414720356,
      3.4730343031696975e-05,
      1.074544361036819e-37,
      1.1272010094826913e-37,
      1.0609166774193217e-37,
      6.862834208222685e-28,
      -0.0007535393233411014,
      1.1524221397629951e-37,
      1.0918248373872413e-37,
      1.1517274320363214e-37,
      -0.0038929893635213375,
      -0.00011244113557040691,
      1.0742765448743173e-37,
      1.084590101571748e-37,
      7.083871469301756e-22,
      1.8676200173124366e-31,
      1.3368929074886182e-08,
      -0.0002152212691726163,
      4.447047619038358e-09,
      6.2235588436365236e-37,
      3.0042486222667903e-15,
      0.0015646017855033278,
      1.1296480129130339e-37,
      -0.003256827127188444,
      0.00033206510124728084,
      -3.643919645462002e-15,
      0.0007397017325274646,
      1.10340247740337e-37,
      1.0600324020363942e-37,
      -0.0010246934834867716,
      2.1316525164848218e-21,
      -0.0008189057698473334,
      1.1084056734403954e-37,
      1.435135252884229e-35,
      1.514660289103631e-05,
      1.1073884428591727e-37,
      1.113015945388024e-37,
      4.648354197905018e-34,
      2.908005080826115e-05
    ]
  },
  "optimizer_weights/adam/sequential_2_conv2d_5_bias_velocity": {
    "type": "dataset",
    "shape": [
      64
    ],
    "dtype": "float32",
    "attributes": {},
    "data": [
      6.001412657496985e-06,
      3.5324344480613945e-06,
      9.996133343292968e-08,
      2.3257103975993232e-07,
      6.969511900933867e-07,
      6.157522147987038e-05,
      9.735704225022346e-07,
      3.397363798285369e-06,
      2.5124401872744784e-05,
      1.2087522822945562e-11,
      2.4277892407553736e-06,
      8.814288188219166e-10,
      8.896553254089667e-07,
      3.849754648399539e-06,
      1.648090375283573e-07,
      1.3127282727509737e-05,
      0.0002215715794591233,
      4.1852431422739755e-06,
      1.9880981305675505e-09,
      3.2871328130568145e-06,
      4.230119543535693e-08,
      2.255365689052269e-05,
      6.652236983484272e-09,
      4.489279945119051e-06,
      4.534721483651083e-06,
      2.6855324904317968e-05,
      1.397783762513427e-05,
      1.7656040540714457e-07,
      1.0777864645206137e-06,
      7.023674530870494e-09,
      2.9854181349264763e-08,
      1.0309728168067522e-05,
      8.049683697386456e-10,
      4.648718743283098e-09,
      2.3870572931627976e-06,
      8.044390415307134e-05,
      1.2105199402867584e-06,
      1.2855460340688296e-07,
      9.615958163067262e-08,
      8.922725669435749e-07,
      2.6823973597878137e-11,
      9.05349588720128e-06,
      6.948570899112383e-06,
      2.2756266844226047e-06,
      5.81636015795084e-07,
      2.7518542538018664e-06,
      1.449481351301074e-05,
      3.179866325808689e-07,
      8.622610766906291e-05,
      3.097810986218974e-05,
      5.1586921472335234e-06,
      6.6182979026052635e-06,
      1.301723045799008e-06,
      1.0188438981373338e-09,
      5.1380247896304354e-05,
      2.0400245830387576e-06,
      2.6250589144183323e-05,
      1.4550617777331354e-07,
      1.3710732673644088e-06,
      1.0075133104692213e-05,
      2.3671057647334237e-07,
      3.07577927571856e-08,
      1.356355738835191e-07,
      1.5061907561175758e-06
    ]
  },
  "optimizer_weights/adam/sequential_2_conv2d_5_kernel_momentum": {
    "type": "dataset",
    "shape": [
      3,
      3,
      64,
      64
    ],
    "dtype": "float32",
    "attributes": {},
    "data": "Large dataset: 36864 elements"
  },
  "optimizer_weights/adam/sequential_2_conv2d_5_kernel_velocity": {
    "type": "dataset",
    "shape": [
      3,
      3,
      64,
      64
    ],
    "dtype": "float32",
    "attributes": {},
    "data": "Large dataset: 36864 elements"
  },
  "optimizer_weights/adam/sequential_2_conv2d_bias_momentum": {
    "type": "dataset",
    "shape": [
      32
    ],
    "dtype": "float32",
    "attributes": {},
    "data": [
      -0.034105949103832245,
      0.0026942710392177105,
      0.03427010029554367,
      0.0016641260590404272,
      -0.048187918961048126,
      -0.002733970293775201,
      -0.016578642651438713,
      0.017412489280104637,
      0.014824409037828445,
      -2.2253411202655116e-07,
      -0.00020240206504240632,
      3.1393414246849716e-05,
      3.866677161568077e-06,
      0.024839062243700027,
      -0.058496639132499695,
      1.3905257219448686e-05,
      -0.044291902333498,
      -0.019624968990683556,
      -3.196891339030117e-05,
      9.988888450607192e-06,
      0.00038047373527660966,
      -0.00010422480409033597,
      0.03177718445658684,
      0.0035727452486753464,
      -0.005385563708841801,
      0.0002675645228009671,
      -0.0010660409461706877,
      1.010371938071424e-25,
      6.400806887540966e-05,
      0.0004030665731988847,
      -0.00595291331410408,
      0.004152493551373482
    ]
  },
  "optimizer_weights/adam/sequential_2_conv2d_bias_velocity": {
    "type": "dataset",
    "shape": [
      32
    ],
    "dtype": "float32",
    "attributes": {},
    "data": [
      0.020843427628278732,
      0.04083644226193428,
      0.010190123692154884,
      0.001991541823372245,
      0.03097052313387394,
      0.003101498354226351,
      0.01566106453537941,
      0.011133079417049885,
      0.01363370567560196,
      1.5086950952536426e-05,
      0.01342106331139803,
      0.0002366438857279718,
      5.015047645429149e-05,
      0.0041334726847708225,
      0.03322955593466759,
      0.0015337461372837424,
      0.02486564591526985,
      0.010649834759533405,
      0.001162974745966494,
      1.3824373468196427e-07,
      0.005750372540205717,
      0.001499909907579422,
      0.02363112010061741,
      0.04202857241034508,
      0.008271140977740288,
      0.0017625638283789158,
      0.0016928412951529026,
      5.6145587311318135e-12,
      0.0012369717005640268,
      0.0038822214119136333,
      0.004753530025482178,
      0.0068586235865950584
    ]
  },
  "optimizer_weights/adam/sequential_2_conv2d_kernel_momentum": {
    "type": "dataset",
    "shape": [
      3,
      3,
      3,
      32
    ],
    "dtype": "float32",
    "attributes": {},
    "data": [
      [
        [
          [
            -0.00204760255292058,
            0.0007982155657373369,
            0.01308541651815176,
            0.0014915729407221079,
            -0.000963357393629849,
            -0.0027808696031570435,
            -0.0003150571137666702,
            0.005412354599684477,
            -0.004665691871196032,
            -7.839439319923258e-09,
            5.3159252274781466e-05,
            6.546033546328545e-07,
            3.857365413750813e-07,
            0.014468279667198658,
            -0.00046156137250363827,
            -4.65265111415647e-05,
            -0.001434014760889113,
            -0.00013070125714875758,
            9.319344826508313e-06,
            2.221796746582072e-09,
            -4.718553100246936e-05,
            -8.049781899899244e-05,
            0.006763361394405365,
            0.00804536696523428,
            -0.007978376001119614,
            3.356692832312547e-05,
            -0.0006008493946865201,
            1.6533447978593495e-27,
            -9.165190704152337e-07,
            7.757489220239222e-05,
            -0.005869274027645588,
            0.004042818211019039
          ],
          [
            -0.00204760255292058,
            0.0007982155657373369,
            0.01308541651815176,
            0.0014915729407221079,
            -0.000963357393629849,
            -0.0027808696031570435,
            -0.0003150571137666702,
            0.005412354599684477,
            -0.004665691871196032,
            -7.839439319923258e-09,
            5.3159252274781466e-05,
            6.546033546328545e-07,
            3.857365413750813e-07,
            0.014468279667198658,
            -0.00046156137250363827,
            -4.65265111415647e-05,
            -0.001434014760889113,
            -0.00013070125714875758,
            9.319344826508313e-06,
            2.221796746582072e-09,
            -4.718553100246936e-05,
            -8.049781899899244e-05,
            0.006763361394405365,
            0.00804536696523428,
            -0.007978376001119614,
            3.356692832312547e-05,
            -0.0006008493946865201,
            1.6533447978593495e-27,
            -9.165190704152337e-07,
            7.757489220239222e-05,
            -0.005869274027645588,
            0.004042818211019039
          ],
          [
            -0.00204760255292058,
            0.0007982155657373369,
            0.01308541651815176,
            0.0014915729407221079,
            -0.000963357393629849,
            -0.0027808696031570435,
            -0.0003150571137666702,
            0.005412354599684477,
            -0.004665691871196032,
            -7.839439319923258e-09,
            5.3159252274781466e-05,
            6.546033546328545e-07,
            3.857365413750813e-07,
            0.014468279667198658,
            -0.00046156137250363827,
            -4.65265111415647e-05,
            -0.001434014760889113,
            -0.00013070125714875758,
            9.319344826508313e-06,
            2.221796746582072e-09,
            -4.718553100246936e-05,
            -8.049781899899244e-05,
            0.006763361394405365,
            0.00804536696523428,
            -0.007978376001119614,
            3.356692832312547e-05,
            -0.0006008493946865201,
            1.6533447978593495e-27,
            -9.165190704152337e-07,
            7.757489220239222e-05,
            -0.005869274027645588,
            0.004042818211019039
          ]
        ],
        [
          [
            -0.0011956836096942425,
            0.0013057402102276683,
            0.0162670761346817,
            0.0013864114880561829,
            -0.0008469701278954744,
            -0.0028770354110747576,
            -0.000297190563287586,
            0.007858716882765293,
            -0.001003861427307129,
            -2.14887947436182e-07,
            0.0003840397112071514,
            4.4742715544998646e-05,
            3.9172514334495645e-06,
            0.015445057302713394,
            -0.0007094757165759802,
            1.3548453352996148e-05,
            -0.0007571535534225404,
            -7.456450839526951e-05,
            1.4884022675687447e-05,
            6.3322955767830535e-09,
            2.345517168578226e-05,
            -7.599366654176265e-05,
            0.012183181010186672,
            0.012651177123188972,
            -0.006709406152367592,
            0.0001089527941076085,
            -0.0002019074745476246,
            7.7119738510674e-26,
            3.560656296031084e-06,
            6.756599759683013e-05,
            -0.005905532743781805,
            0.003637538757175207
          ],
          [
            -0.0011956836096942425,
            0.0013057402102276683,
            0.0162670761346817,
            0.0013864114880561829,
            -0.0008469701278954744,
            -0.0028770354110747576,
            -0.000297190563287586,
            0.007858716882765293,
            -0.001003861427307129,
            -2.14887947436182e-07,
            0.0003840397112071514,
            4.4742715544998646e-05,
            3.9172514334495645e-06,
            0.015445057302713394,
            -0.0007094757165759802,
            1.3548453352996148e-05,
            -0.0007571535534225404,
            -7.456450839526951e-05,
            1.4884022675687447e-05,
            6.3322955767830535e-09,
            2.345517168578226e-05,
            -7.599366654176265e-05,
            0.012183181010186672,
            0.012651177123188972,
            -0.006709406152367592,
            0.0001089527941076085,
            -0.0002019074745476246,
            7.7119738510674e-26,
            3.560656296031084e-06,
            6.756599759683013e-05,
            -0.005905532743781805,
            0.003637538757175207
          ],
          [
            -0.0011956836096942425,
            0.0013057402102276683,
            0.0162670761346817,
            0.0013864114880561829,
            -0.0008469701278954744,
            -0.0028770354110747576,
            -0.000297190563287586,
            0.007858716882765293,
            -0.001003861427307129,
            -2.14887947436182e-07,
            0.0003840397112071514,
            4.4742715544998646e-05,
            3.9172514334495645e-06,
            0.015445057302713394,
            -0.0007094757165759802,
            1.3548453352996148e-05,
            -0.0007571535534225404,
            -7.456450839526951e-05,
            1.4884022675687447e-05,
            6.3322955767830535e-09,
            2.345517168578226e-05,
            -7.599366654176265e-05,
            0.012183181010186672,
            0.012651177123188972,
            -0.006709406152367592,
            0.0001089527941076085,
            -0.0002019074745476246,
            7.7119738510674e-26,
            3.560656296031084e-06,
            6.756599759683013e-05,
            -0.005905532743781805,
            0.003637538757175207
          ]
        ],
        [
          [
            -0.000865053094457835,
            0.0013823218178004026,
            0.01984214596450329,
            0.0009386191377416253,
            -0.0007713562808930874,
            -0.003208514302968979,
            -0.0002254500868730247,
            0.008167377673089504,
            0.002897930797189474,
            -1.1155053443456797e-11,
            0.000884833512827754,
            9.325298742624e-05,
            9.531284490549297e-07,
            0.015264361165463924,
            -0.0010522357188165188,
            2.4834407668095082e-05,
            -0.0006983494968153536,
            1.8954597180709243e-06,
            -1.8562488548923284e-05,
            -3.257981440185631e-09,
            -5.451615834317636e-06,
            -1.615373184904456e-05,
            0.013509833253920078,
            0.015474185347557068,
            -0.006311178207397461,
            0.00013873542775399983,
            -4.49746148660779e-05,
            2.916393536919809e-27,
            1.4966469734645216e-06,
            0.0003082886978518218,
            -0.006254767067730427,
            0.0034448918886482716
          ],
          [
            -0.000865053094457835,
            0.0013823218178004026,
            0.01984214596450329,
            0.0009386191377416253,
            -0.0007713562808930874,
            -0.003208514302968979,
            -0.0002254500868730247,
            0.008167377673089504,
            0.002897930797189474,
            -1.1155053443456797e-11,
            0.000884833512827754,
            9.325298742624e-05,
            9.531284490549297e-07,
            0.015264361165463924,
            -0.0010522357188165188,
            2.4834407668095082e-05,
            -0.0006983494968153536,
            1.8954597180709243e-06,
            -1.8562488548923284e-05,
            -3.257981440185631e-09,
            -5.451615834317636e-06,
            -1.615373184904456e-05,
            0.013509833253920078,
            0.015474185347557068,
            -0.006311178207397461,
            0.00013873542775399983,
            -4.49746148660779e-05,
            2.916393536919809e-27,
            1.4966469734645216e-06,
            0.0003082886978518218,
            -0.006254767067730427,
            0.0034448918886482716
          ],
          [
            -0.000865053094457835,
            0.0013823218178004026,
            0.01984214596450329,
            0.0009386191377416253,
            -0.0007713562808930874,
            -0.003208514302968979,
            -0.0002254500868730247,
            0.008167377673089504,
            0.002897930797189474,
            -1.1155053443456797e-11,
            0.000884833512827754,
            9.325298742624e-05,
            9.531284490549297e-07,
            0.015264361165463924,
            -0.0010522357188165188,
            2.4834407668095082e-05,
            -0.0006983494968153536,
            1.8954597180709243e-06,
            -1.8562488548923284e-05,
            -3.257981440185631e-09,
            -5.451615834317636e-06,
            -1.615373184904456e-05,
            0.013509833253920078,
            0.015474185347557068,
            -0.006311178207397461,
            0.00013873542775399983,
            -4.49746148660779e-05,
            2.916393536919809e-27,
            1.4966469734645216e-06,
            0.0003082886978518218,
            -0.006254767067730427,
            0.0034448918886482716
          ]
        ]
      ],
      [
        [
          [
            -0.002323366701602936,
            0.00011154441745020449,
            0.013041896745562553,
            0.0019585778936743736,
            -0.0012255302863195539,
            -0.0024761632084846497,
            -0.0002823045651894063,
            0.00561722693964839,
            -0.003946928307414055,
            -3.480847610148885e-09,
            -0.000367410626495257,
            -8.846589480526745e-06,
            -2.970660261780722e-06,
            0.013513714075088501,
            -0.0008359633502550423,
            -1.605413854122162e-05,
            -0.0018915770342573524,
            -0.00010622743866406381,
            1.6429636161774397e-05,
            1.0786220627778675e-06,
            -7.638349779881537e-05,
            -8.143996092258021e-05,
            0.006554100196808577,
            0.006629786919802427,
            -0.007339047733694315,
            5.6459342886228114e-05,
            -0.00011929665924981236,
            3.945540431461559e-29,
            1.7719543393468484e-05,
            4.2609593947418034e-05,
            -0.005526906345039606,
            0.003106621326878667
          ],
          [
            -0.002323366701602936,
            0.00011154441745020449,
            0.013041896745562553,
            0.0019585778936743736,
            -0.0012255302863195539,
            -0.0024761632084846497,
            -0.0002823045651894063,
            0.00561722693964839,
            -0.003946928307414055,
            -3.480847610148885e-09,
            -0.000367410626495257,
            -8.846589480526745e-06,
            -2.970660261780722e-06,
            0.013513714075088501,
            -0.0008359633502550423,
            -1.605413854122162e-05,
            -0.0018915770342573524,
            -0.00010622743866406381,
            1.6429636161774397e-05,
            1.0786220627778675e-06,
            -7.638349779881537e-05,
            -8.143996092258021e-05,
            0.006554100196808577,
            0.006629786919802427,
            -0.007339047733694315,
            5.6459342886228114e-05,
            -0.00011929665924981236,
            3.945540431461559e-29,
            1.7719543393468484e-05,
            4.2609593947418034e-05,
            -0.005526906345039606,
            0.003106621326878667
          ],
          [
            -0.002323366701602936,
            0.00011154441745020449,
            0.013041896745562553,
            0.0019585778936743736,
            -0.0012255302863195539,
            -0.0024761632084846497,
            -0.0002823045651894063,
            0.00561722693964839,
            -0.003946928307414055,
            -3.480847610148885e-09,
            -0.000367410626495257,
            -8.846589480526745e-06,
            -2.970660261780722e-06,
            0.013513714075088501,
            -0.0008359633502550423,
            -1.605413854122162e-05,
            -0.0018915770342573524,
            -0.00010622743866406381,
            1.6429636161774397e-05,
            1.0786220627778675e-06,
            -7.638349779881537e-05,
            -8.143996092258021e-05,
            0.006554100196808577,
            0.006629786919802427,
            -0.007339047733694315,
            5.6459342886228114e-05,
            -0.00011929665924981236,
            3.945540431461559e-29,
            1.7719543393468484e-05,
            4.2609593947418034e-05,
            -0.005526906345039606,
            0.003106621326878667
          ]
        ],
        [
          [
            -0.0012774376664310694,
            0.0006713060429319739,
            0.017151497304439545,
            0.0017643208848312497,
            -0.0007835094584152102,
            -0.002721609780564904,
            -0.00034106848761439323,
            0.007027832325547934,
            0.0011362764053046703,
            -2.1961217555599433e-07,
            0.00011975577217526734,
            1.2112257536500692e-05,
            -1.5081398032634752e-06,
            0.013996348716318607,
            -0.0009642935474403203,
            8.098719990812242e-05,
            -0.0008958979742601514,
            6.580579793080688e-05,
            3.268673026468605e-05,
            6.085468839955865e-07,
            8.796827751211822e-05,
            -5.731383862439543e-05,
            0.013355790637433529,
            0.009111052379012108,
            -0.0059856451116502285,
            5.225057975621894e-05,
            8.775619789958e-06,
            1.1732831473197128e-26,
            1.2554663044284098e-05,
            -5.872954352525994e-05,
            -0.005801007151603699,
            0.002586321672424674
          ],
          [
            -0.0012774376664310694,
            0.0006713060429319739,
            0.017151497304439545,
            0.0017643208848312497,
            -0.0007835094584152102,
            -0.002721609780564904,
            -0.00034106848761439323,
            0.007027832325547934,
            0.0011362764053046703,
            -2.1961217555599433e-07,
            0.00011975577217526734,
            1.2112257536500692e-05,
            -1.5081398032634752e-06,
            0.013996348716318607,
            -0.0009642935474403203,
            8.098719990812242e-05,
            -0.0008958979742601514,
            6.580579793080688e-05,
            3.268673026468605e-05,
            6.085468839955865e-07,
            8.796827751211822e-05,
            -5.731383862439543e-05,
            0.013355790637433529,
            0.009111052379012108,
            -0.0059856451116502285,
            5.225057975621894e-05,
            8.775619789958e-06,
            1.1732831473197128e-26,
            1.2554663044284098e-05,
            -5.872954352525994e-05,
            -0.005801007151603699,
            0.002586321672424674
          ],
          [
            -0.0012774376664310694,
            0.0006713060429319739,
            0.017151497304439545,
            0.0017643208848312497,
            -0.0007835094584152102,
            -0.002721609780564904,
            -0.00034106848761439323,
            0.007027832325547934,
            0.0011362764053046703,
            -2.1961217555599433e-07,
            0.00011975577217526734,
            1.2112257536500692e-05,
            -1.5081398032634752e-06,
            0.013996348716318607,
            -0.0009642935474403203,
            8.098719990812242e-05,
            -0.0008958979742601514,
            6.580579793080688e-05,
            3.268673026468605e-05,
            6.085468839955865e-07,
            8.796827751211822e-05,
            -5.731383862439543e-05,
            0.013355790637433529,
            0.009111052379012108,
            -0.0059856451116502285,
            5.225057975621894e-05,
            8.775619789958e-06,
            1.1732831473197128e-26,
            1.2554663044284098e-05,
            -5.872954352525994e-05,
            -0.005801007151603699,
            0.002586321672424674
          ]
        ],
        [
          [
            -0.0009238425991497934,
            0.0016520273638889194,
            0.02054385095834732,
            0.0011384370736777782,
            -0.0004985869745723903,
            -0.0030731961596757174,
            -0.00021115872368682176,
